#if !defined(POISSON12USES)
#define POISSON12USES
	static const float2 poisson12_gsc[12] = 
	{
		-0.326212f, -0.405810f,
		-0.840144f, -0.073580f,
		-0.695914f,  0.457137f,  
		-0.203345f,  0.620716f,
		 0.962340f, -0.194983f,
		 0.473434f, -0.480026f,
		 0.519456f,  0.767022f,
		 0.185461f, -0.893124f,
		 0.507431f,  0.064425f,
		 0.896420f,  0.412458f,
		-0.321940f, -0.932615f,
		-0.791559f, -0.597710f,
	};

	// Round bias
	static const float2	poisson25_round[25] = 
	{
		 0.00, 	 0.00,	 0.54,	 0.84,	-0.62, 
		 1.36, 	-1.88,	 0.27,	-1.46,	-1.69, 
		 0.72, 	-2.44,	 2.72,	-0.79,	 2.33, 
		 2.03, 	-0.48,	 3.30,	-3.25,	 1.47, 
		-3.18, 	-2.06,	 0.02,	-3.99,	 3.54, 
		-2.25, 	 3.98,	 1.84,	 0.62,	 4.53, 
		-3.61, 	 3.09,	-4.71,	-1.41,	-1.40, 
		-4.90, 	 3.47,	-3.95,	 5.35,	 0.81, 
		 2.27, 	 5.09,	-3.13,	 4.79,	-5.87, 
		-0.05, 	-3.20,	-5.09,	 2.61,	-5.58, 
	};

	static const float3 sphere_kernel[42] = 
	{
		{-0.809017, -0.309017,  0.500000},
		{-0.500000, -0.809017,  0.309017},
		{-0.309017, -0.500000,  0.809017},
		{-0.850651, -0.525731, -0.000000},
		{-0.525731,  0.000000,  0.850651},
		{ 0.000000, -0.850651,  0.525731},
		{-0.309017,  0.500000,  0.809017},
		{-0.500000,  0.809017,  0.309017},
		{-0.809017,  0.309017,  0.500000},
		{ 0.000000,  0.850651,  0.525731},
		{-0.850651,  0.525731, -0.000000},
		{-1.000000,  0.000000, -0.000000},
		{-0.809017, -0.309017, -0.500000},
		{-0.809017,  0.309017, -0.500000},
		{-0.525731,  0.000000, -0.850651},
		{ 0.809017, -0.309017, -0.500000},
		{ 0.500000, -0.809017, -0.309017},
		{ 0.309017, -0.500000, -0.809017},
		{ 0.850651, -0.525731, -0.000000},
		{ 0.525731,  0.000000, -0.850651},
		{ 0.000000, -0.850651, -0.525731},
		{-0.309017, -0.500000, -0.809017},
		{ 0.000000,  0.000000, -1.000000},
		{-0.500000, -0.809017, -0.309017},
		{ 0.000000, -1.000000, -0.000000},
		{ 0.500000, -0.809017,  0.309017},
		{ 0.809017, -0.309017,  0.500000},
		{ 0.309017, -0.500000,  0.809017},
		{ 0.525731,  0.000000,  0.850651},
		{ 0.000000,  0.000000,  1.000000},
		{ 0.309017,  0.500000,  0.809017},
		{ 0.809017,  0.309017,  0.500000},
		{ 0.500000,  0.809017,  0.309017},
		{ 0.850651,  0.525731, -0.000000},
		{ 1.000000,  0.000000, -0.000000},
		{ 0.809017,  0.309017, -0.500000},
		{ 0.309017,  0.500000, -0.809017},
		{ 0.500000,  0.809017, -0.309017},
		{ 0.000000,  0.850651, -0.525731},
		{ 0.000000,  1.000000, -0.000000},
		{-0.500000,  0.809017, -0.309017},
		{-0.309017,  0.500000, -0.809017},
	};

	static const float3 hemisphere_kernel[21] = 
	{
		{-0.809017, -0.309017,  0.500000},
		{-0.500000, -0.809017,  0.309017},
		{-0.309017, -0.500000,  0.809017},
		{-0.525731,  0.000000,  0.850651},
		{ 0.000000, -0.850651,  0.525731},
		{-0.309017,  0.500000,  0.809017},
		{-0.500000,  0.809017,  0.309017},
		{-0.809017,  0.309017,  0.500000},
		{ 0.000000,  0.850651,  0.525731},
		{-1.000000,  0.000000,  0.000000},
		{ 0.000000, -1.000000,  0.000000},
		{ 0.500000, -0.809017,  0.309017},
		{ 0.809017, -0.309017,  0.500000},
		{ 0.309017, -0.500000,  0.809017},
		{ 0.525731,  0.000000,  0.850651},
		{ 0.000000,  0.000000,  1.000000},
		{ 0.309017,  0.500000,  0.809017},
		{ 0.809017,  0.309017,  0.500000},
		{ 0.500000,  0.809017,  0.309017},
		{ 1.000000,  0.000000,  0.000000},
		{ 0.000000,  1.000000,  0.000000},
	};
#endif
